digraph Tree {
node [shape=box] ;
0 [label="Contract <= 0.5\nentropy = 0.844\nsamples = 4930\nvalue = [3589, 1341]\nclass = 0"] ;
1 [label="InternetService_Fiber optic <= 0.5\nentropy = 0.986\nsamples = 2728\nvalue = [1551, 1177]\nclass = 0"] ;
0 -> 1 [labeldistance=2.5, labelangle=45, headlabel="True"] ;
2 [label="Tenure <= 5.5\nentropy = 0.866\nsamples = 1228\nvalue = [874, 354]\nclass = 0"] ;
1 -> 2 ;
3 [label="InternetService_DSL <= 0.5\nentropy = 0.985\nsamples = 526\nvalue = [301, 225]\nclass = 0"] ;
2 -> 3 ;
4 [label="TotalCharges <= 0.002\nentropy = 0.859\nsamples = 205\nvalue = [147, 58]\nclass = 0"] ;
3 -> 4 ;
5 [label="entropy = 0.965\nsamples = 118\nvalue = [72, 46]\nclass = 0"] ;
4 -> 5 ;
6 [label="entropy = 0.579\nsamples = 87\nvalue = [75, 12]\nclass = 0"] ;
4 -> 6 ;
7 [label="SeniorCitizen <= 0.5\nentropy = 0.999\nsamples = 321\nvalue = [154, 167]\nclass = 1"] ;
3 -> 7 ;
8 [label="entropy = 0.999\nsamples = 284\nvalue = [148, 136]\nclass = 0"] ;
7 -> 8 ;
9 [label="entropy = 0.639\nsamples = 37\nvalue = [6, 31]\nclass = 1"] ;
7 -> 9 ;
10 [label="PhoneService <= 0.5\nentropy = 0.688\nsamples = 702\nvalue = [573, 129]\nclass = 0"] ;
2 -> 10 ;
11 [label="TotalCharges <= 0.11\nentropy = 0.872\nsamples = 164\nvalue = [116, 48]\nclass = 0"] ;
10 -> 11 ;
12 [label="entropy = 0.956\nsamples = 90\nvalue = [56, 34]\nclass = 0"] ;
11 -> 12 ;
13 [label="entropy = 0.7\nsamples = 74\nvalue = [60, 14]\nclass = 0"] ;
11 -> 13 ;
14 [label="MonthlyCharges <= 0.257\nentropy = 0.611\nsamples = 538\nvalue = [457, 81]\nclass = 0"] ;
10 -> 14 ;
15 [label="entropy = 0.448\nsamples = 182\nvalue = [165, 17]\nclass = 0"] ;
14 -> 15 ;
16 [label="entropy = 0.68\nsamples = 356\nvalue = [292, 64]\nclass = 0"] ;
14 -> 16 ;
17 [label="TotalCharges <= 0.175\nentropy = 0.993\nsamples = 1500\nvalue = [677, 823]\nclass = 1"] ;
1 -> 17 ;
18 [label="TotalCharges <= 0.012\nentropy = 0.896\nsamples = 793\nvalue = [248, 545]\nclass = 1"] ;
17 -> 18 ;
19 [label="TotalCharges <= 0.006\nentropy = 0.578\nsamples = 167\nvalue = [23, 144]\nclass = 1"] ;
18 -> 19 ;
20 [label="entropy = 0.0\nsamples = 26\nvalue = [0, 26]\nclass = 1"] ;
19 -> 20 ;
21 [label="entropy = 0.642\nsamples = 141\nvalue = [23, 118]\nclass = 1"] ;
19 -> 21 ;
22 [label="MonthlyCharges <= 0.62\nentropy = 0.942\nsamples = 626\nvalue = [225, 401]\nclass = 1"] ;
18 -> 22 ;
23 [label="entropy = 0.991\nsamples = 291\nvalue = [129, 162]\nclass = 1"] ;
22 -> 23 ;
24 [label="entropy = 0.864\nsamples = 335\nvalue = [96, 239]\nclass = 1"] ;
22 -> 24 ;
25 [label="PaymentMethod_Electronic check <= 0.5\nentropy = 0.967\nsamples = 707\nvalue = [429, 278]\nclass = 0"] ;
17 -> 25 ;
26 [label="Tenure <= 51.5\nentropy = 0.892\nsamples = 340\nvalue = [235, 105]\nclass = 0"] ;
25 -> 26 ;
27 [label="entropy = 0.936\nsamples = 258\nvalue = [167, 91]\nclass = 0"] ;
26 -> 27 ;
28 [label="entropy = 0.659\nsamples = 82\nvalue = [68, 14]\nclass = 0"] ;
26 -> 28 ;
29 [label="TotalMonthCharges <= 0.352\nentropy = 0.998\nsamples = 367\nvalue = [194, 173]\nclass = 0"] ;
25 -> 29 ;
30 [label="entropy = 0.991\nsamples = 173\nvalue = [77, 96]\nclass = 1"] ;
29 -> 30 ;
31 [label="entropy = 0.969\nsamples = 194\nvalue = [117, 77]\nclass = 0"] ;
29 -> 31 ;
32 [label="MonthlyCharges <= 0.75\nentropy = 0.382\nsamples = 2202\nvalue = [2038, 164]\nclass = 0"] ;
0 -> 32 [labeldistance=2.5, labelangle=-45, headlabel="False"] ;
33 [label="Contract <= 1.5\nentropy = 0.265\nsamples = 1668\nvalue = [1593, 75]\nclass = 0"] ;
32 -> 33 ;
34 [label="MonthlyCharges <= 0.23\nentropy = 0.411\nsamples = 763\nvalue = [700, 63]\nclass = 0"] ;
33 -> 34 ;
35 [label="TotalMonthCharges <= 0.005\nentropy = 0.199\nsamples = 291\nvalue = [282, 9]\nclass = 0"] ;
34 -> 35 ;
36 [label="entropy = 0.918\nsamples = 6\nvalue = [4, 2]\nclass = 0"] ;
35 -> 36 ;
37 [label="entropy = 0.166\nsamples = 285\nvalue = [278, 7]\nclass = 0"] ;
35 -> 37 ;
38 [label="MonthlyCharges <= 0.254\nentropy = 0.513\nsamples = 472\nvalue = [418, 54]\nclass = 0"] ;
34 -> 38 ;
39 [label="entropy = 1.0\nsamples = 6\nvalue = [3, 3]\nclass = 0"] ;
38 -> 39 ;
40 [label="entropy = 0.498\nsamples = 466\nvalue = [415, 51]\nclass = 0"] ;
38 -> 40 ;
41 [label="TotalMonthCharges <= 0.778\nentropy = 0.102\nsamples = 905\nvalue = [893, 12]\nclass = 0"] ;
33 -> 41 ;
42 [label="Tenure <= 66.5\nentropy = 0.095\nsamples = 902\nvalue = [891, 11]\nclass = 0"] ;
41 -> 42 ;
43 [label="entropy = 0.13\nsamples = 558\nvalue = [548, 10]\nclass = 0"] ;
42 -> 43 ;
44 [label="entropy = 0.029\nsamples = 344\nvalue = [343, 1]\nclass = 0"] ;
42 -> 44 ;
45 [label="entropy = 0.918\nsamples = 3\nvalue = [2, 1]\nclass = 0"] ;
41 -> 45 ;
46 [label="Tenure <= 70.5\nentropy = 0.65\nsamples = 534\nvalue = [445, 89]\nclass = 0"] ;
32 -> 46 ;
47 [label="MonthlyCharges <= 0.828\nentropy = 0.75\nsamples = 392\nvalue = [308, 84]\nclass = 0"] ;
46 -> 47 ;
48 [label="MonthlyCharges <= 0.818\nentropy = 0.568\nsamples = 142\nvalue = [123, 19]\nclass = 0"] ;
47 -> 48 ;
49 [label="entropy = 0.618\nsamples = 124\nvalue = [105, 19]\nclass = 0"] ;
48 -> 49 ;
50 [label="entropy = 0.0\nsamples = 18\nvalue = [18, 0]\nclass = 0"] ;
48 -> 50 ;
51 [label="TotalMonthCharges <= 0.762\nentropy = 0.827\nsamples = 250\nvalue = [185, 65]\nclass = 0"] ;
47 -> 51 ;
52 [label="entropy = 0.931\nsamples = 124\nvalue = [81, 43]\nclass = 0"] ;
51 -> 52 ;
53 [label="entropy = 0.668\nsamples = 126\nvalue = [104, 22]\nclass = 0"] ;
51 -> 53 ;
54 [label="TotalCharges <= 0.764\nentropy = 0.22\nsamples = 142\nvalue = [137, 5]\nclass = 0"] ;
46 -> 54 ;
55 [label="entropy = 0.0\nsamples = 1\nvalue = [0, 1]\nclass = 1"] ;
54 -> 55 ;
56 [label="TotalCharges <= 0.999\nentropy = 0.186\nsamples = 141\nvalue = [137, 4]\nclass = 0"] ;
54 -> 56 ;
57 [label="entropy = 0.149\nsamples = 140\nvalue = [137, 3]\nclass = 0"] ;
56 -> 57 ;
58 [label="entropy = 0.0\nsamples = 1\nvalue = [0, 1]\nclass = 1"] ;
56 -> 58 ;
}